111051 300
</s> 0.28922 -0.46075 0.35142 -0.41104 0.16421 0.17307 -0.21562 -0.090636 -0.079495 -0.11149 0.030614 -0.0062959 0.14929 0.17588 0.023571 -0.13192 0.24037 -0.023433 -0.090424 -0.1205 0.15024 -0.04173 0.22556 0.0088108 0.037523 -0.023573 0.088627 -0.21427 0.012018 -0.057337 -0.029528 0.10135 0.1427 -0.20236 -0.046452 -0.16167 0.43107 -0.017859 -0.15654 0.14826 -0.034114 -0.14649 -0.091926 -0.16326 -0.08863 -0.057991 -0.12135 0.032937 0.20307 0.20069 0.256 -0.10217 -0.22534 -0.1053 -0.35453 0.047078 0.0064066 0.16062 0.30925 0.084114 -0.10756 0.27985 -0.13681 -0.1818 -0.23974 -0.015328 0.047659 0.18575 -0.05236 0.021459 -0.20396 0.16799 -0.164 -0.10783 0.15601 -0.12507 -0.043054 -0.12134 0.035488 -0.055631 -0.010796 -0.14874 -0.0087224 -0.10568 -0.10334 0.27871 0.072898 0.02437 -0.21292 -0.12933 0.13453 -0.29429 -0.012638 0.32057 -0.0036427 -0.0692 -0.041341 -0.082506 0.080206 -0.12415 0.098575 0.018395 -0.030875 0.14337 -0.031857 0.0083619 0.1698 -0.22698 0.018308 0.0070261 -0.11076 0.30176 0.019704 -0.096599 -0.10573 -0.10037 0.053377 0.13537 -0.19165 -0.10802 0.35025 0.037928 -0.025666 -0.13706 -0.055297 -0.25373 0.089364 0.048505 0.063653 -0.076123 0.15775 -0.16222 0.048127 0.021253 0.034688 0.025495 0.025375 0.21207 -0.056502 -0.012027 -0.21509 0.27694 -0.1712 0.23526 0.093841 0.1569 0.084581 -0.20348 0.057066 0.17313 0.21994 0.075223 0.0029434 -0.10477 0.15655 0.08439 -0.054225 0.2591 0.09501 0.12065 -0.097624 -0.39088 -0.11872 0.055564 0.0030523 -0.1682 -0.11147 -0.2611 0.075417 0.22004 -0.2144 0.18776 -0.029542 0.12228 -0.097995 0.043922 0.00088643 -0.06877 0.010332 -0.28294 0.0090767 0.14283 -0.017587 0.34911 0.022856 0.20548 0.019219 0.16139 0.076971 -0.24604 -0.035292 0.019849 -0.005259 -0.064386 0.11798 0.079227 -0.21783 0.054348 -0.10345 -0.21179 -0.0080982 0.098216 0.12251 0.04682 0.18489 0.023274 -0.18824 -0.21202 -0.001573 -0.31142 -0.10275 0.051682 -0.010912 -0.092177 -0.089845 0.083772 -0.03581 0.23526 0.00339 -0.075118 -0.037055 0.36795 -0.22527 -0.013583 -0.21753 0.020199 0.16155 0.10071 -0.071392 -0.11245 0.1506 -0.0087441 0.01535 -0.045475 -0.052137 0.01161 -0.081927 -0.11045 -0.088656 0.076494 0.0027199 0.047671 -0.13635 0.071316 0.27536 0.13012 0.12835 0.068754 -0.067035 0.27232 -0.15474 -0.10152 -0.13648 0.11222 -0.0099446 -0.30343 -0.13898 0.16141 0.040906 0.17311 -0.17253 -0.034614 0.040535 0.39172 0.085643 -0.10927 -0.017601 -0.32394 -0.061749 -0.41945 -0.40244 0.092796 0.2124 -0.11956 -0.017501 -0.060142 0.15649 -0.15314 -0.049023 0.011875 0.25828 0.097162 -0.036877 -0.073488 -0.31932 0.04429 0.21113 0.18836 -0.52352 -0.081093 0.12632 -0.20521 -0.015346 0.20426 -0.20942 0.10423 -0.16121 0.13313 -0.23465 0.0053066 
. 0.056857 -0.051956 0.27326 -0.46071 -0.092431 0.29899 -0.23999 -0.034116 -0.028948 -0.060919 0.046351 -0.046025 0.02116 0.21137 -0.090016 -0.04249 -0.10974 0.043862 -0.025069 -0.14857 0.029323 0.092049 0.1074 -0.11212 -0.11129 -0.037896 0.048354 -0.2177 -0.037957 -0.060364 0.098121 0.053865 -0.014206 0.017839 -0.13304 -0.050629 0.07498 -0.089129 -0.051945 0.064029 0.023864 -0.0065933 0.13133 -0.28459 0.20212 -0.026394 -0.030135 0.0649 0.10931 0.040948 0.12878 -0.04202 -0.078563 -0.016322 -0.13669 0.04769 0.14753 0.11339 0.10809 0.062785 -0.19802 0.16453 -0.058588 -0.05849 -0.03865 -0.17617 -0.1115 -0.012085 0.015707 0.076853 -0.11019 0.0066043 -0.058453 -0.0188 0.15071 -0.1378 0.12275 -0.05664 0.071154 0.026163 -0.043365 -0.038033 -0.014248 -0.061539 -0.012662 0.074463 -0.088092 0.054299 0.075228 -0.021442 0.010453 0.050412 -0.074295 0.019872 0.049167 -0.056176 -0.10473 0.16563 0.12843 0.044255 -0.062392 -0.10378 -0.1443 0.11944 0.026746 0.16505 -0.055049 -0.063078 0.080835 -0.020457 -0.044819 0.12974 0.10061 -0.026543 0.00085757 0.055645 0.11948 0.0060683 -0.012937 0.089136 0.1349 -0.20723 -0.091012 0.0053755 -0.12596 -0.16996 0.29034 -0.18323 -0.084379 -0.015998 0.15756 -0.018649 0.0024815 -0.17977 0.087252 0.11225 -0.064339 0.063719 -0.054939 0.12258 -0.18201 0.13309 0.094422 0.21075 0.1186 -0.1256 -0.025125 0.019638 -0.11898 -0.042123 0.010488 -0.11453 0.24084 0.014377 0.065836 -0.14333 0.015141 0.181 0.18458 0.17462 -0.12133 -0.009879 -0.099906 -0.12319 0.083214 -0.14751 -0.14448 -0.14138 0.12092 0.07143 -0.046933 0.041118 -0.0010656 0.13243 -0.16132 -0.0033545 0.064775 -0.080659 0.088812 -0.26851 -0.32682 0.027216 -0.12577 0.13937 0.098527 -0.060459 -0.043338 -0.044288 -0.042566 0.040217 0.058051 0.065905 0.14506 -0.061236 0.017149 -0.069948 -0.21149 0.11543 -0.16486 -0.15048 0.15899 -0.037115 -0.0012594 0.068619 0.041491 -0.091243 -0.041969 -0.11193 0.0059694 -0.20431 -0.20005 0.092947 0.056198 -0.058748 -0.060437 0.19373 0.028445 0.037236 0.072179 -0.026794 -0.067925 0.045572 -0.0050182 0.073284 -0.19174 -0.10344 -0.11012 -0.091861 -0.015515 -0.077527 -0.0081125 -0.094633 -0.017778 -0.032551 0.03989 -0.079704 -0.009064 -0.09813 0.10171 0.039219 0.10889 -0.039129 0.011014 0.032558 0.0010479 -0.04008 0.0069764 0.0036087 -0.013945 0.17785 -0.0030685 0.20397 -0.039429 0.071673 -0.19985 -0.19914 -0.057142 0.08412 -0.18126 0.28589 -0.025851 0.033137 0.10591 0.2526 0.044792 0.047398 -0.088104 -0.21021 -0.042949 -0.075586 -0.19448 -0.057406 0.10961 -0.043815 0.13866 -0.070032 0.069243 -0.054571 0.04147 0.15273 -0.0067433 0.010604 0.0276 -0.070456 -0.050473 0.1265 0.25396 0.17074 -0.19267 -0.0025199 -0.038779 -0.30563 0.077991 0.13188 -0.08366 0.057451 -0.19495 -0.069453 -0.16064 -0.098923 
, 0.20132 0.010376 0.16235 -0.27298 0.039575 0.22115 -0.10703 -0.089337 -0.019734 -0.040641 0.060606 0.020317 0.01139 0.12455 -0.19771 -0.19208 0.011446 0.047472 -0.0086267 -0.13171 0.16265 0.13131 0.035543 -0.064897 -0.069441 -0.034721 0.044049 -0.16109 0.0057406 -0.027192 -0.047153 0.0751 -0.1214 0.043709 -0.043388 -0.19764 0.23133 -0.061207 0.003943 0.23344 0.013143 -0.049553 0.045145 -0.14777 0.13616 -0.070055 0.082417 0.042809 0.21347 -0.074479 0.065698 -0.018479 -0.074487 -0.062651 -0.13854 -0.0037865 0.024165 0.13881 -0.045226 0.17118 -0.095896 0.11095 -0.042478 -0.25836 -0.073653 -0.079577 -0.14143 0.10467 -0.016882 0.01106 -0.0337 -0.0056643 -0.25329 -0.0047637 0.084428 -0.11058 0.13527 -0.044014 0.10956 0.028919 -0.055579 0.0054216 -0.0063438 -0.084744 0.076347 0.042285 -0.01818 -0.026757 -0.15339 -0.21064 0.067622 -0.035973 -0.049801 0.10212 -0.025203 0.10096 -0.063524 0.10274 0.023295 0.085574 -0.24675 -0.17766 -0.085092 0.057953 -0.015669 0.058381 0.07239 -0.04815 0.12023 0.039538 -0.032813 0.081705 0.22117 0.0056921 -0.060281 -0.0044239 0.0042914 0.032582 0.070959 0.064393 0.10078 -0.18512 -0.0069208 -0.1013 -0.17805 -0.23741 0.25595 -0.10206 -0.086413 0.04197 0.14749 -0.13514 -0.099796 -0.026249 0.087611 -0.073098 -0.10105 -0.031685 0.00074453 0.003895 -0.29316 0.15227 0.12435 0.16154 0.060563 0.015597 0.064099 -0.023629 -0.11912 -0.0048181 0.048679 -0.021203 0.20704 0.031937 0.059534 -0.10469 -0.27658 0.1851 -0.043932 0.13621 0.065153 -0.054377 0.04423 -0.061533 0.049008 -0.1977 -0.011365 -0.033723 0.035109 -0.011275 -0.14128 0.13575 -0.070453 0.1479 -0.11463 0.12409 0.13165 -0.0022781 -0.090064 -0.099528 -0.074828 -0.076174 -0.092693 0.25677 0.01316 0.068883 -0.13932 0.081707 0.053813 -0.00074675 -0.020582 -0.044274 -0.051166 0.039138 -0.07003 -0.022407 -0.32211 0.02344 -0.20095 -0.11799 0.19371 0.016648 0.056803 -0.00055371 0.10025 -0.074327 -0.065021 0.0066075 -0.091382 -0.073934 -0.14649 0.083694 -0.035213 -0.087283 -0.057006 0.077968 0.038763 0.17835 0.081894 -0.0971 -0.031871 0.018737 -0.019699 0.097352 -0.11615 -0.034378 -0.12198 0.0079757 0.016624 -0.068652 0.034285 0.15716 0.036117 -0.052159 -0.047579 -0.040863 0.052896 -0.022907 -0.026849 0.058331 0.089692 -0.10283 -0.011006 0.18944 0.074844 -0.04362 0.13386 -0.018465 0.0054596 0.15301 0.067808 0.080059 -0.087902 0.022378 -0.059758 -0.20054 -0.092356 0.087527 0.051243 0.12098 -0.080872 -0.10659 0.067997 0.18941 -0.046046 -0.0026956 -0.055105 -0.14711 0.10203 -0.091393 -0.15196 -0.13909 0.0025392 -0.057733 -0.013033 -0.13366 0.10932 -0.1449 0.00070433 0.066741 0.068789 -0.017327 -0.10317 -0.017664 0.05046 0.11481 0.039092 0.18282 -0.35158 -0.022102 0.012218 -0.29477 0.082204 0.082302 -0.17245 0.0029101 -0.21745 -0.093056 -0.14075 -0.13264 
the 0.010399 -0.18291 0.076084 -0.18541 0.099364 0.19839 -0.16722 -0.013452 -0.00028677 0.0026706 0.097921 -0.11183 -0.13611 0.13828 0.0013663 0.089178 0.062126 0.13424 0.019727 -0.13894 0.064864 0.011646 -0.069312 0.15011 -0.0083578 -0.073977 0.25229 -0.048231 0.086696 0.14083 0.02218 0.092541 0.029381 -0.025967 -0.066355 -0.013935 0.069898 0.070866 -0.21941 0.07805 0.063172 -0.033124 0.065174 -0.0091945 0.24218 0.13306 -0.077687 0.06803 0.070054 0.11193 0.03221 -0.27921 -0.034977 0.017082 -0.014469 0.014274 0.097878 0.068483 0.078639 0.06009 -0.14036 0.21027 -0.059627 -0.11493 -0.047982 -0.14682 -0.2126 0.094046 0.074551 -0.095217 -0.018776 -0.022611 0.13751 -0.020693 0.2187 -0.23951 -0.056583 -0.016129 0.15558 0.06521 -0.23285 -0.077124 -0.054202 0.097352 -0.066922 -0.016582 0.097675 -0.051532 -0.017892 -0.17215 0.11336 0.086711 -0.096829 0.13821 -0.15401 -0.010456 -0.23204 0.089269 0.10648 0.040647 0.067472 -0.22071 -0.074981 0.27198 0.016319 0.077116 -0.091699 -0.051382 0.02129 0.062556 0.057433 0.01485 0.013432 -0.11731 -0.12586 -0.021894 0.085081 0.11237 -0.12249 -0.12282 0.089167 -0.0054447 0.088936 0.098517 -0.099624 -0.14896 0.14992 0.041353 -0.095574 0.039965 0.16499 -0.14502 -0.051162 -0.12371 0.071031 0.0045226 -0.22223 -0.08847 -0.078513 -0.067817 -0.22093 0.10089 0.17588 0.058044 0.12856 -0.15203 -0.10861 0.013917 -0.081659 0.022254 0.00016271 -0.10578 0.16115 0.042607 -0.039906 -0.10973 -0.16324 0.025601 -0.020199 0.26956 0.01958 -0.1139 -0.013617 0.065689 0.1475 -0.00594 0.088879 -0.046882 0.1772 -0.048547 -0.072382 0.025995 0.027072 0.12051 -0.035767 -0.064676 0.13846 -0.03479 0.1552 -0.26046 -0.3161 -0.056528 -0.076097 -0.031598 0.11626 -0.10901 -0.049858 0.19496 -0.098112 -0.041852 -0.062388 0.10709 0.19639 0.15981 -0.091911 -0.022524 -0.2705 -0.033326 -0.11177 -0.20585 0.14961 -0.00068064 -0.068284 -0.043337 0.0074121 -0.041801 -0.06024 -0.025963 0.091652 -0.16726 -0.16791 0.13784 0.032672 0.11739 0.090783 0.0193 0.052226 -0.04193 0.059504 -0.046264 -0.016563 -0.04058 -0.021775 0.081641 -0.0046449 0.0043718 -0.10769 -0.040876 0.068326 0.050909 -0.19227 0.083436 0.063457 -0.06609 0.13743 -0.26015 -0.013104 -0.035255 -0.05689 -0.072095 0.20966 0.092019 -0.014434 0.11185 -0.19237 -0.075239 -0.075605 -0.19011 -0.064409 0.23007 -0.022825 0.24048 -0.08033 0.019474 -0.11032 -0.079904 -0.12847 0.2155 -0.098112 0.19185 -0.061134 -0.038616 -0.0043824 0.10866 0.008 0.095298 -0.091967 -0.16894 0.13984 -0.13564 -0.2104 0.092979 0.053614 -0.014827 0.17542 0.085917 0.03991 -0.23365 0.12 0.17197 0.039991 0.035964 -0.023448 0.12637 -0.21453 0.16352 -0.0075725 0.21089 -0.18115 -0.047806 -0.19214 -0.22286 0.18172 0.17968 -0.037763 0.12955 -0.093836 -0.13616 -0.22401 -0.05523 
of 0.152 -0.30387 0.19315 -0.27381 0.031657 -0.021603 -0.14734 0.056411 0.055352 0.10192 0.15333 -0.065717 0.047937 0.22662 -0.030293 0.042524 -0.066271 0.18054 -0.13087 -0.15147 0.11548 0.11954 -0.10083 -0.04824 0.057461 -0.18379 0.18598 -0.19291 -0.065628 -0.015283 -0.06061 -0.011891 0.098398 0.12015 -0.09713 -0.20831 0.070985 0.043025 -0.1236 0.064096 0.22336 -0.033307 0.087605 -0.10943 0.083791 0.089888 -0.026923 0.051387 0.28972 0.15139 0.0099832 -0.15328 -0.15758 -0.037465 0.20731 0.038286 0.16805 -0.0039052 0.18805 0.04329 -0.11405 0.3186 -0.033822 -0.097701 -0.16085 -0.24612 -0.24673 0.12623 0.032184 0.027124 0.09692 -0.15171 0.11189 -0.09522 0.16055 -0.27642 0.091136 -0.03181 0.040239 -0.092068 -0.11764 -0.14466 0.039324 -0.018842 0.063901 0.079858 -0.14211 -0.050392 -0.041744 -0.22764 0.25444 -0.042312 -0.11426 0.090751 -0.13012 -0.078833 -0.16547 0.063562 0.20837 0.055514 0.0050153 -0.13101 0.029067 0.11206 0.14911 -0.016018 -0.06965 -0.034301 0.043024 0.023441 0.09281 0.13711 0.14221 -0.2022 -0.32416 -0.066022 0.11006 0.014027 -0.10504 -0.063046 0.1636 0.13258 0.028928 0.023726 -0.061891 0.016524 0.25289 -0.0044723 -0.052166 -0.027699 0.038357 -0.086458 0.035396 -0.21215 0.029495 0.072075 -0.23056 -0.094939 -0.011283 -0.09723 -0.29866 0.099484 0.28512 0.1077 0.035942 -0.15462 -0.069743 -0.1494 0.054638 0.053594 0.12574 -0.16119 0.081381 0.023411 -0.020761 0.04084 -0.13096 0.050483 0.0029795 0.22291 0.082668 -0.14186 -0.1991 0.033784 0.079241 0.024738 0.038078 -0.094141 0.05223 0.049677 -0.096407 0.052373 -0.075108 -0.068718 -0.069138 -0.13094 -0.034077 -0.13846 0.16386 -0.26645 -0.14363 -0.034031 -0.1364 0.01053 0.11249 -0.0095874 -0.026641 0.27509 0.080893 -0.063694 0.082667 -0.067101 0.085539 0.15598 -0.0014084 0.021236 -0.21938 -0.19356 -0.16517 -0.088198 0.3651 -0.12782 -0.022092 -0.13848 0.074826 -0.11672 -0.15319 0.098303 0.096584 -0.048456 -0.14025 0.054146 0.12095 -0.020803 0.18423 0.061669 0.020085 -0.0048278 0.069123 -0.017794 -0.074059 -0.024735 -0.02235 -0.05473 -0.2299 0.099174 -0.016623 -0.21078 0.21506 0.030604 -0.067963 0.14322 0.087946 -0.1371 0.16034 -0.12452 -0.091314 -0.016043 0.058554 0.025629 0.1728 0.092463 -0.068929 0.2469 -0.0054026 -0.069843 -0.080021 -0.16762 0.0053869 0.34893 0.059604 0.21905 -0.074548 -0.055138 -0.077719 -0.14034 0.006186 0.24022 -0.10647 0.14713 -0.16463 -0.0068313 0.019942 0.061868 0.0081375 0.16921 -0.087173 -0.23594 0.24109 -0.093363 -0.22897 0.25335 0.11631 -0.14167 0.034518 0.058257 0.046457 -0.25188 0.13996 0.10514 -0.10776 0.086381 -0.017083 0.14076 -0.25332 0.29013 -0.026532 0.1288 -0.3296 -0.1732 -0.18724 -0.16799 0.10372 0.077217 -0.21558 0.16684 -0.14167 -0.11314 -0.22346 0.026356 