50509 300
▁the 0.031599 0.082643 -0.190533 0.004365 0.037117 0.299817 0.341633 -0.049449 0.034103 0.106156 0.052182 0.186966 0.197077 -0.328083 0.103188 -0.315741 -0.330746 -0.072162 -0.098685 0.184273 -0.061165 0.236482 -0.195324 -0.030558 -0.090824 -0.069145 0.064171 -0.152727 0.054506 -0.033320 0.023961 0.077807 -0.058568 -0.018418 0.367435 -0.100596 0.082348 0.064754 0.378665 -0.087400 0.470566 -0.185023 -0.053823 -0.036819 -0.088096 0.122083 -0.309891 0.026041 0.101225 -0.308768 0.051571 -0.079012 -0.123013 -0.050238 0.190858 -0.242999 -0.215671 0.078646 -0.102098 -0.134967 -0.032582 -0.158891 -0.057006 -0.055848 -0.106047 -0.124043 0.026137 -0.032742 0.006601 0.030995 0.057658 0.068593 -0.046706 0.099901 -0.218863 -0.164498 -0.284685 -0.091917 0.079064 -0.077947 -0.261012 0.573690 -0.128419 0.208597 0.081494 0.187316 0.427283 0.193656 0.079049 0.142808 -0.146882 -0.199921 0.027962 0.105011 -0.133034 -0.109940 -0.077946 0.333837 -0.153523 -0.119138 0.083290 0.003783 -0.066518 0.024189 0.163778 -0.132508 -0.007486 -0.086197 -0.205366 -0.067891 0.052439 0.066960 -0.159781 -0.539596 0.093179 0.289087 0.117841 0.363975 0.160862 -0.052419 0.252627 -0.115023 -0.025275 -0.184175 -0.012185 -0.084740 -0.310664 0.206370 0.194951 -0.138471 0.359819 0.104434 0.131372 -0.208004 -0.203264 -0.061165 -0.184746 -0.148227 0.318942 -0.139400 -0.075694 0.131506 -0.036946 0.005524 0.085261 0.130659 0.232771 0.079501 -0.239802 0.236095 0.033450 -0.125222 0.071422 0.097015 0.114959 -0.050838 -0.011055 0.153573 -0.054615 0.109397 0.010623 0.151258 -0.009962 0.307127 0.129204 0.152776 0.124490 -0.259221 -0.026964 -0.030927 -0.171483 -0.008745 0.032146 0.206198 -0.251330 0.270573 -0.106219 0.004107 -0.059362 -0.017963 0.182898 -0.112602 -0.071285 0.344008 -0.014368 0.009423 -0.097915 -0.110928 0.149510 -0.006431 0.207277 -0.214930 -0.283203 0.209145 -0.155898 -0.084498 -0.103928 -0.006062 0.012740 0.220734 -0.173455 -0.006580 -0.321403 0.185895 0.099043 -0.059764 -0.037935 0.068515 0.274299 -0.239152 0.221165 0.016005 -0.136020 0.095198 0.049919 -0.018746 -0.069301 -0.008625 -0.067780 -0.055829 -0.185242 0.010259 -0.135487 0.164744 0.182462 -0.027023 -0.046392 0.070228 0.055654 -0.181872 0.211905 -0.008974 -0.159972 -0.051958 -0.025769 0.015244 0.131365 -0.002262 -0.167193 0.212760 0.096598 -0.088838 0.157275 0.074486 0.109297 0.337304 0.056702 0.095658 -0.129906 -0.019822 -0.149156 -0.110092 -0.009914 -0.297207 0.182048 0.097929 0.180056 0.107141 -0.074332 -0.169844 0.075127 -0.047545 -0.033129 0.015808 0.184870 0.023600 -0.044150 -0.124803 -0.063737 0.077233 0.506372 -0.176590 -0.332056 0.154425 -0.010098 0.276155 -0.237078 -0.008476 0.126071 -0.046809 -0.426661 -0.100811 0.047720 -0.006756 -0.093657 -0.188293 0.194860 0.182758 -0.005635 0.164559 -0.123471 -0.071546 -0.572351 0.194631 -0.164523 -0.324786 0.178582 -0.139465 0.086248 -0.040797
, 0.010734 0.111230 0.066776 0.028474 0.006384 -0.080309 0.142024 -0.089470 0.233490 -0.058445 -0.039924 0.327761 0.149525 -0.113848 0.106671 -0.041697 0.067351 -0.416782 0.124502 0.044010 -0.054049 0.031601 -0.130135 0.133789 -0.110460 0.284554 0.080669 0.031067 0.048900 0.102838 0.160528 -0.041000 -0.113178 0.226236 0.059746 0.101658 -0.046978 0.113844 0.075737 -0.102482 0.121891 -0.298647 -0.081236 -0.131865 0.195606 0.060961 -0.032175 -0.125209 -0.033000 -0.077410 0.139997 -0.019262 -0.078280 0.002700 0.004089 -0.092269 -0.221375 0.017568 0.018858 -0.238624 -0.078200 -0.056038 0.101358 -0.085520 0.003142 0.242629 0.005508 0.208106 -0.056890 0.128888 0.001011 -0.043513 -0.076746 -0.042408 0.039097 -0.031074 -0.264265 -0.202116 -0.232792 0.021178 0.073353 0.412738 -0.004615 -0.076799 0.118583 -0.004397 0.085780 0.166287 0.119918 0.174884 -0.098232 -0.101295 0.156961 0.056245 0.060660 -0.175104 -0.076678 0.111912 0.047175 -0.090126 0.058134 -0.196486 0.010381 0.137244 0.115998 -0.107455 -0.165968 -0.058494 -0.172454 -0.087274 0.022114 -0.225758 -0.003232 -0.180731 0.123472 0.075310 -0.253361 0.189459 0.042142 -0.097870 0.124620 -0.088824 -0.043313 0.123734 -0.088260 0.041236 -0.214055 -0.113511 0.107504 0.227157 0.094600 0.141172 0.074821 -0.006959 -0.069079 -0.126387 0.232959 0.131414 0.207341 -0.186511 -0.090437 0.009167 -0.253661 -0.101891 0.129386 0.020114 0.030314 0.250088 -0.114984 0.024780 0.202274 0.026844 -0.150543 -0.139954 -0.085552 0.017188 0.000794 -0.075901 0.025083 -0.074264 0.045288 0.001403 -0.187356 0.184806 -0.011890 0.046071 -0.065935 -0.082051 0.053882 0.097504 -0.116805 0.068563 0.091495 0.210912 -0.053282 -0.271347 -0.188494 0.082602 -0.008828 -0.113758 0.274070 -0.160740 0.054714 0.242231 -0.012600 -0.028875 -0.009983 -0.193101 -0.008679 0.050089 -0.054454 -0.237566 -0.144568 -0.092745 0.043061 -0.074028 -0.243726 -0.090183 -0.022428 -0.011466 -0.203464 0.101480 -0.138009 0.308000 -0.033635 0.039268 0.063695 0.196345 0.106243 -0.184326 0.059236 0.067858 -0.120103 0.060049 -0.067529 -0.141719 0.114340 -0.039500 0.091327 -0.078282 0.139621 0.128456 0.019958 0.088240 0.146501 0.016186 -0.064335 -0.186276 0.039260 -0.037921 0.199502 -0.083567 -0.040587 0.025362 0.047737 0.024833 -0.290166 -0.110944 -0.141000 0.009076 0.351292 0.003396 0.016337 -0.154745 0.137000 0.175958 0.143508 -0.037549 0.235223 0.039891 -0.228791 -0.054197 0.101647 -0.030873 -0.050860 0.064180 -0.061178 0.036434 0.042669 -0.226115 0.321719 -0.229942 -0.206637 0.027787 0.019889 0.149703 0.114628 0.122432 0.024646 -0.117881 0.009770 0.026747 -0.274883 0.115416 -0.141707 0.278541 -0.089313 -0.089826 0.184085 -0.078823 -0.322212 0.137080 -0.002932 0.059076 -0.088411 -0.110942 0.197366 0.229468 -0.007277 -0.144201 -0.104097 0.215990 -0.080695 0.061002 0.058933 -0.178617 -0.021624 0.122147 -0.102670 -0.100021
. -0.074107 0.142077 0.044056 0.002898 0.007873 0.031198 0.186947 0.032157 -0.005116 -0.030714 0.071062 0.146258 0.080130 -0.291688 0.065671 -0.058163 -0.088247 -0.378723 0.040567 0.047711 -0.005435 0.078244 -0.117111 0.126849 -0.054099 0.230146 0.029452 0.080902 -0.077010 -0.054080 0.177527 -0.118918 0.003176 0.126555 0.066585 0.019566 -0.066161 0.139620 0.129348 0.039487 0.108026 -0.196341 -0.018568 -0.048821 -0.055697 0.160627 -0.238277 -0.031490 -0.160373 -0.044209 0.112205 -0.109594 -0.164029 -0.006458 0.024582 -0.132020 -0.100032 0.075883 0.106141 -0.196844 -0.012197 -0.050744 0.047674 -0.214747 -0.077133 0.176057 -0.059378 -0.063084 -0.103151 0.048887 -0.053431 -0.123146 0.075721 -0.079080 -0.104548 -0.108606 -0.314611 -0.162986 -0.148868 -0.110920 -0.022320 0.409817 -0.030169 -0.049327 0.060898 0.042728 0.061246 0.073826 0.092355 0.127250 -0.012175 -0.019471 0.133565 0.101716 0.158884 -0.094017 -0.191302 0.214420 0.011991 -0.153301 0.092439 -0.275399 -0.030511 -0.062272 0.125730 -0.264383 -0.119251 -0.027174 -0.101851 -0.079865 0.106979 -0.014721 -0.028063 -0.295466 0.093522 0.152775 -0.107108 0.213063 -0.029668 -0.089335 0.111602 -0.029096 -0.120787 0.015277 -0.172049 0.078204 -0.222353 -0.038991 0.105153 0.155478 0.201104 -0.017867 0.062059 0.006126 -0.060772 -0.039321 -0.049661 0.134755 0.162754 0.018866 0.060133 -0.008421 -0.042288 -0.088460 -0.017156 0.061947 0.155868 0.146030 -0.098403 0.221422 0.115610 -0.057838 -0.018283 -0.102215 -0.217321 -0.122305 -0.011130 0.026346 -0.202667 -0.003423 0.022677 0.082380 -0.093230 0.274357 0.127020 0.044231 -0.046168 -0.071008 0.093062 0.052822 -0.137590 0.078481 0.011696 0.205981 -0.134866 -0.035094 -0.095748 0.033700 -0.103769 0.039987 0.262365 -0.068377 -0.086138 0.310450 0.048223 -0.044546 -0.082544 -0.204172 0.044008 0.038157 0.058114 -0.235098 -0.162575 0.080283 -0.036638 -0.145172 -0.063486 -0.200385 -0.037697 0.077791 -0.203980 0.152387 -0.144962 0.260953 0.009852 0.014050 0.187306 0.105121 0.173553 -0.225223 -0.017326 0.015319 -0.133561 -0.180257 -0.069288 -0.054091 -0.068020 -0.002449 -0.091099 -0.075921 -0.091004 -0.085964 0.059708 -0.024247 0.155063 -0.078745 -0.075860 -0.067717 -0.088521 -0.265406 0.304221 -0.049105 -0.219825 0.175891 0.008814 0.062610 -0.162227 -0.042822 -0.158664 0.000160 0.108043 -0.035362 0.121951 -0.033484 -0.070687 0.122832 0.107552 0.001695 0.279212 0.091264 -0.078601 -0.067517 -0.096421 -0.122174 0.017141 0.043771 -0.054182 0.117001 -0.108783 -0.373057 0.128089 -0.091120 -0.155223 -0.006558 0.078722 0.241599 0.148852 -0.061702 -0.026745 -0.079021 0.164995 0.068325 -0.450180 0.135185 -0.038115 0.246685 0.037403 0.021880 0.112199 -0.073078 -0.282266 0.049477 -0.061212 -0.148431 -0.042806 -0.231076 0.379831 0.049277 0.042294 -0.042742 -0.034767 0.102324 -0.328716 0.037690 -0.034055 -0.328498 0.096932 -0.028867 -0.121913 -0.109097
▁of 0.071048 0.333634 -0.264174 0.153587 0.059136 0.266265 0.709266 -0.123506 0.057056 0.146306 -0.062823 0.294038 0.182929 -0.274776 0.187392 -0.255437 -0.210085 -0.175545 0.167448 0.334864 -0.067808 0.293433 -0.240487 -0.077523 -0.072685 0.093146 0.143960 0.044330 -0.033073 -0.077079 0.070707 0.009482 -0.105537 0.004060 0.288923 0.071076 0.080511 0.200930 0.185217 0.196008 0.446646 -0.191085 -0.047244 -0.219924 -0.022837 0.147996 -0.046538 -0.132235 0.243383 -0.210619 0.087743 0.010274 -0.159255 -0.121971 -0.133224 -0.078620 -0.192535 0.184273 0.062242 -0.191645 -0.148885 0.017217 -0.028995 -0.145598 -0.126932 0.043830 -0.003082 -0.029904 -0.011938 0.118126 0.108650 0.053947 -0.079880 0.047718 -0.259236 0.049079 -0.286030 -0.078968 0.060216 -0.103703 -0.238063 0.403031 -0.015007 -0.116223 0.264216 0.229983 0.098619 0.051110 0.162046 0.335015 0.047274 -0.168320 0.055931 0.107020 0.025724 -0.216480 -0.126156 0.320100 -0.051203 -0.074595 0.131222 0.123761 -0.185294 0.063295 0.308892 -0.183974 -0.277123 -0.080559 -0.273245 0.019900 -0.077999 0.084399 0.027624 -0.390933 0.179309 0.107012 0.079275 -0.014341 0.135218 -0.041434 0.149204 -0.124254 -0.030029 -0.012498 0.184411 -0.018751 -0.045072 -0.003129 0.241800 -0.169895 0.061395 0.141195 0.074396 -0.150751 -0.133655 -0.125244 -0.056914 -0.159702 0.578153 -0.094471 -0.102755 0.027743 0.078331 -0.092122 0.164899 0.133468 0.338235 0.089282 -0.242777 0.090040 0.002420 0.090048 -0.119204 -0.046022 0.227719 0.045361 0.040535 0.115125 -0.012811 0.135436 0.045306 0.186158 0.103388 0.230276 0.229490 0.111787 -0.112274 -0.316223 0.053138 0.089011 0.000552 -0.031231 -0.004376 0.239236 -0.060104 0.125809 -0.132735 -0.107180 -0.209418 -0.224247 0.128454 -0.240028 0.091378 0.178783 0.152899 0.097227 -0.100862 -0.215571 0.194955 -0.022782 0.354468 -0.247465 -0.182758 0.098498 -0.062721 -0.094859 -0.277764 -0.008161 0.010713 0.006521 -0.180734 0.028722 -0.295446 0.228155 0.019820 -0.031005 -0.031144 0.023876 0.146311 -0.428112 0.171634 -0.007112 -0.177248 0.059081 -0.068293 -0.190355 -0.054524 0.098843 0.170752 0.078287 -0.171550 0.048597 0.025806 -0.005748 0.256055 -0.101219 -0.209262 0.055362 -0.063579 -0.111268 0.304543 -0.101977 0.094963 -0.125715 0.172801 -0.098374 -0.246828 -0.023475 -0.216513 -0.080148 0.188465 -0.071379 0.023589 0.026693 0.083098 0.211743 0.096152 0.046669 0.038333 0.126716 -0.228248 -0.030179 -0.065385 -0.179591 0.113271 -0.154394 -0.081819 0.177827 -0.226342 -0.342999 0.140603 -0.188978 -0.125357 0.036598 0.211586 0.003843 -0.049528 -0.086226 -0.086745 0.059024 0.329344 0.058257 -0.371052 -0.077183 0.105619 0.601819 -0.214242 -0.058754 0.220559 0.065835 -0.263416 0.063304 0.159203 0.116643 -0.150820 -0.165695 0.265338 0.280169 -0.095824 0.236616 0.092218 0.171880 -0.175128 -0.178887 -0.213020 -0.312688 -0.073879 0.043226 -0.047147 -0.349571
▁in -0.066691 0.096941 0.064485 -0.009139 0.072871 0.044622 0.060119 0.003710 0.085771 0.063447 0.144603 0.422151 0.125700 -0.551535 0.085680 -0.096147 -0.142633 -0.349450 0.208419 0.036003 -0.013200 -0.080809 -0.281582 0.121384 -0.094989 0.189037 0.004479 -0.043686 -0.072866 -0.135658 0.069327 0.023683 -0.166389 0.057082 0.208492 0.044394 -0.068208 0.325281 0.287623 -0.099933 0.172201 -0.208065 0.064619 -0.095283 0.085176 0.141264 0.048325 -0.150255 -0.083560 -0.158414 0.096529 -0.171824 -0.024125 -0.125663 0.027031 -0.100032 -0.040893 0.179941 0.100807 -0.291180 -0.246258 -0.169449 0.118977 -0.086650 -0.176179 -0.087880 0.060947 0.025476 -0.111232 0.169147 0.129883 -0.058157 -0.077762 -0.256276 -0.110823 -0.240610 -0.286884 0.057205 -0.167362 -0.020205 -0.119858 0.540058 -0.123093 0.008255 0.029786 0.206447 0.129511 0.122568 -0.036668 0.112229 0.122532 -0.016811 0.188372 -0.056701 0.090331 0.049943 -0.141719 0.200233 -0.132775 0.065499 0.139661 -0.073340 0.017654 0.098137 0.118884 -0.029383 -0.157024 -0.121387 -0.359377 -0.144404 0.052970 -0.159396 0.002445 -0.431403 0.060733 0.286479 -0.104623 0.262232 -0.038994 -0.066667 0.121593 -0.061075 0.073770 0.206808 -0.095170 -0.173888 0.038957 0.043908 0.152178 -0.032609 0.377957 0.259333 0.122225 0.004920 -0.251102 -0.000710 0.207263 0.170855 0.191003 -0.298031 -0.119501 -0.055712 -0.072200 -0.008193 0.049716 0.161405 0.168604 0.189654 -0.067614 0.218565 0.230923 0.036235 0.069298 0.052959 0.069056 -0.104437 -0.205645 0.049735 -0.112825 -0.102272 0.088314 0.084067 -0.176434 0.380340 0.049254 0.053049 -0.260752 -0.279956 0.069278 0.203891 -0.162207 0.075144 0.012393 0.328284 -0.176025 0.288805 -0.249458 0.010077 -0.013832 -0.166889 0.295124 -0.218004 -0.183956 0.316355 0.089146 -0.059213 -0.175240 -0.066857 0.041082 -0.181103 0.007690 -0.131009 -0.155407 0.027594 -0.070090 -0.028550 -0.105136 -0.139193 0.013591 -0.061428 -0.112090 -0.154572 -0.223846 0.088176 0.138602 0.093376 0.225032 0.283846 0.321927 -0.130280 0.076990 0.105112 -0.208047 -0.209111 -0.161535 0.051964 0.156299 0.172983 0.068209 -0.096084 -0.035492 0.057060 -0.143228 -0.039878 0.182807 0.044686 -0.121564 0.029713 0.062214 -0.185194 0.215601 -0.110073 -0.313772 0.217582 0.018579 -0.068067 -0.270717 -0.081402 -0.084796 0.014088 0.238899 -0.081651 -0.135726 0.060631 0.057456 0.218383 -0.026781 -0.062737 0.081019 0.044741 -0.059892 -0.109324 -0.018711 -0.036301 -0.059257 0.112813 -0.047544 0.072687 -0.090134 -0.388746 0.262506 -0.208894 -0.172937 0.047678 0.027341 0.325320 -0.024583 -0.158402 0.066314 0.041380 0.070153 -0.020862 -0.436889 0.108804 0.020570 0.638789 -0.061358 0.022188 0.237681 -0.227281 -0.533918 0.277192 0.229523 -0.126442 -0.087767 -0.195394 0.338392 0.131645 0.074774 -0.118482 -0.077693 0.004532 -0.385615 -0.000900 -0.202442 -0.192166 0.219242 -0.109466 0.131213 -0.273277
